tree
version=v4
num_class=1
num_tree_per_iteration=1
label_index=0
max_feature_idx=7
objective=lambdarank
feature_names=rank avg_pts_1y avg_pts_1y_surface surf_winrate_y1 trend_slope is_clay is_grass is_outdoor
feature_infos=[1:1187] [7:11055] [7:11055] [0:1] [-570:201.09091186523438] [0:1] [0:1] [0:1]
tree_sizes=1729 1727 1728 1718 1727 1723 1728 1733 1718 1726

Tree=0
num_leaves=15
num_cat=0
split_feature=0 1 4 5 4 2 0 4 4 4 4 4 1 1
split_gain=4.60846 3.03209 1.69516 1.37962 1.30933 1.74226 3.31097 1.55623 1.1481 1.06256 2.1521 1.48887 1.37844 1.25764
threshold=62.500000000000007 8052.5839843750009 20.895130157470707 1.0000000180025095e-35 0.91168832778930675 766.51785278320324 34.500000000000007 -13.166666507720945 -37.009523391723626 -29.28991603851318 -24.668033599853512 -1.9583333134651182 1017.9393005371095 855.11111450195324
decision_type=2 2 2 2 2 2 2 2 2 2 2 2 2 2
left_child=1 3 8 9 7 -6 -7 -5 -2 -1 -11 -12 13 -13
right_child=2 -3 -4 4 5 6 -8 -9 -10 10 11 12 -14 -15
leaf_value=-0.015546924197881434 -0.029057356693944814 0.036026748759042881 0.0057461463832971802 -0.0012599375865588315 0.029608363333133374 0.011169912940196461 -0.025335403244315945 0.024575251793214296 -0.010084810342481459 0.030939120636020903 -0.011709748602453957 0.0057272045830029372 0.0064258542086361682 -0.012009611509135119
leaf_weight=2.6405646596103862 2.0315552810207071 1.5576658938080061 3.7789952568709841 1.995886529330164 1.0711315190419552 3.5248995758593082 2.4711324637755752 4.292737163603304 22.966909971553832 1.295720241498201 5.9730319366790381 3.7805659938603728 14.771008305251597 6.1203535511158407
leaf_count=116 53 90 101 89 21 201 90 107 688 22 248 126 641 215
internal_value=-0.00165 0.0028239 -0.00934541 0.00174447 0.0083458 0.00120022 -0.00387174 0.0163725 -0.0116276 -0.00080449 0.000413696 -0.000876431 0.00174551 -0.00523492
internal_weight=78.2722 49.4947 28.7775 47.937 13.3558 7.06716 5.99603 6.28862 24.9985 34.5812 31.9407 30.645 24.6719 9.90092
internal_count=2808 1966 842 1876 508 312 291 196 741 1368 1252 1230 982 341
is_linear=0
shrinkage=0.0241822


Tree=1
num_leaves=15
num_cat=0
split_feature=2 2 4 2 2 2 4 4 4 5 2 2 7 2
split_gain=33.806 16.6677 6.44929 4.21553 4.5861 4.46203 4.83852 4.21023 3.50069 4.25965 3.5361 2.93129 2.86189 3.53126
threshold=7451.3889160156259 1287.411560058594 -15.124999999999998 1452.1428833007815 2532.256958007813 3175.0532226562505 3.851648330688477 26.801948547363285 14.297268867492678 1.0000000180025095e-35 1547.2727661132815 1386.5434570312502 1.0000000180025095e-35 907.58334350585949
decision_type=2 2 2 2 2 2 2 2 2 2 2 2 2 2
left_child=1 12 -3 11 8 -6 -7 -8 9 10 -5 -4 -1 -14
right_child=-2 2 3 4 5 6 7 -9 -10 -11 -12 -13 13 -15
leaf_value=-0.017533573145042641 0.032884937605713309 -0.010756361647623384 0.008964288984631183 -0.034064974218756393 0.027152712059059489 0.025482376652636536 -0.018883427769236766 0.0091087599620188354 0.0078371859701920864 0.0049991568496750276 -0.0062449540374563198 0.028936228967497112 -0.010998994690644737 -0.0011329378387629826
leaf_weight=20.368034465238452 16.429247234482318 13.394909853581337 9.6180389160290378 4.7265258412808233 7.802888564765456 4.9830991858616498 5.3902682671323401 7.5326053590979427 12.909044864121823 7.8930724761448792 6.1510914424434304 7.7747170077636829 60.241477951873094 32.754386961692944
leaf_count=263 125 263 82 31 97 55 68 136 143 68 83 55 910 429
internal_value=-0.00047031 -0.0031895 0.00469559 0.00746365 0.00430235 0.0118909 0.00523896 -0.00256556 -0.00185532 -0.00852219 -0.0183354 0.0178933 -0.00932284 -0.00752427
internal_weight=217.969 201.54 88.1763 74.7814 57.3886 25.7089 17.906 12.9229 31.6797 18.7707 10.8776 17.3928 113.364 92.9959
internal_count=2808 2683 1081 818 681 356 259 204 325 182 114 137 1602 1339
is_linear=0
shrinkage=0.0241822


Tree=2
num_leaves=15
num_cat=0
split_feature=2 0 3 2 2 2 3 5 0 0 0 5 0 0
split_gain=43.1706 12.9701 9.11821 7.03281 6.70388 5.61659 4.61394 3.90914 4.45493 3.95819 3.72045 2.99156 1.57921 1.25256
threshold=2532.256958007813 52.500000000000007 0.57793521881103527 1682.159118652344 7451.3889160156259 3175.0532226562505 0.71834936738014232 1.0000000180025095e-35 27.500000000000004 31.500000000000004 19.500000000000004 1.0000000180025095e-35 16.500000000000004 215.00000000000003
decision_type=2 2 2 2 2 2 2 2 2 2 2 2 2 2
left_child=1 2 10 7 5 -2 12 8 -4 -10 -1 -7 -5 -3
right_child=4 13 3 6 -6 11 -8 -9 9 -11 -12 -13 -14 -15
leaf_value=0.01187354082474334 0.024436309374734958 -0.015725212186913376 0.017335750492377171 -0.012680826811375308 0.030250719790175705 -0.002665941976433404 -0.029626399071540563 0.02012428212227876 -0.018908783196401002 0.0051649291854194155 -0.014439853549449549 0.017965873010617493 0.010483245650632023 0.00016407759457037093
leaf_weight=3.5549717762041864 12.746257510036232 64.269755403278396 10.237070316448809 2.9040204423945379 18.6067177914083 13.252691514091568 4.7983963505830616 14.108775315573437 5.8903373950161066 12.403072570916263 27.006136312382296 5.9561770993750534 4.2242504500318319 3.0356944454833856
leaf_count=42 112 1062 89 54 125 232 59 129 54 144 470 108 79 49
internal_value=-0.000652386 -0.00707524 -0.000802767 0.00511996 0.0187106 0.0119903 -0.0112943 0.00971173 0.00456175 -0.00258558 -0.0113783 0.00373046 0.00104336 -0.0150082
internal_weight=202.994 152.432 85.127 54.5659 50.5618 31.9551 11.9267 42.6393 28.5305 18.2934 30.5611 19.2089 7.12827 67.3054
internal_count=2808 2231 1120 608 577 452 192 416 287 198 512 340 133 1111
is_linear=0
shrinkage=0.0241822


Tree=3
num_leaves=15
num_cat=0
split_feature=2 3 1 1 3 2 2 2 1 5 3 2 2 1
split_gain=43.4348 7.64481 4.51307 5.85844 3.62274 2.60062 2.51766 4.30601 3.88916 3.4956 2.39479 1.85627 4.48351 3.0785
threshold=1335.7806396484377 0.59317129850387584 8052.5839843750009 1347.3974609375002 0.58722111582756054 1114.9206542968752 918.23855590820324 718.69616699218761 1024.035095214844 1.0000000180025095e-35 0.67533785104751598 2144.779418945313 1521.2678833007815 2960.555541992188
decision_type=2 2 2 2 2 2 2 2 2 2 2 2 2 2
left_child=4 -2 3 -3 5 -1 7 9 -8 -6 -10 12 -5 -13
right_child=1 2 -4 11 6 -7 8 -9 10 -11 -12 13 -14 -15
leaf_value=-0.015174672375095096 -0.0039053026029081312 0.038384551221286929 0.025805705288190105 0.013564952360602393 -0.014064598611963398 -0.037511654944384715 0.015822608324071986 -0.023713289575518465 0.0047113642527642106 0.006207456925850687 -0.019480821857359224 0.023017872276734394 -0.0080706611538848665 0.0081445956626428201
leaf_weight=43.499442094471306 16.538421941222623 4.37473788158968 15.638235799968241 12.569452710449697 10.703093251911927 3.2792657404206684 6.07215219317004 10.59545183368027 4.2668407533783448 9.2910993052646518 5.4445382566191256 11.670286098262293 10.10186376958154 26.913350441260263
leaf_count=985 269 21 92 83 131 81 63 157 76 95 51 148 127 398
internal_value=-0.000174728 0.0110805 0.0141304 0.0113481 -0.0119926 -0.0167411 -0.00720202 -0.0112494 0.000640915 -0.00464337 -0.00884958 0.00941676 0.00392367 0.0126439
internal_weight=190.958 97.8063 81.2679 65.6297 93.1519 46.7787 46.3732 30.5896 15.7835 19.9942 9.71138 61.255 22.6713 38.5836
internal_count=2777 1138 869 777 1639 1066 573 383 190 226 127 756 210 546
is_linear=0
shrinkage=0.0241822


Tree=4
num_leaves=15
num_cat=0
split_feature=2 3 4 1 4 3 4 3 4 2 4 3 3 3
split_gain=35.9925 8.69853 4.55477 4.40692 5.54691 2.90324 3.98197 2.83094 2.2391 2.15898 1.90854 2.11682 3.48529 1.89929
threshold=1335.7806396484377 0.59317129850387584 14.297268867492678 8052.5839843750009 -0.64977914094924916 0.65450927615165722 1.0000000180025095e-35 0.58722111582756054 -0.93947964906692494 1114.9206542968752 4.972527503967286 0.79655173420906078 0.69631093740463268 0.76833632588386547
decision_type=2 2 2 2 2 2 2 2 2 2 2 2 2 2
left_child=7 2 -2 4 13 -6 -7 9 -9 -1 -10 12 -12 -3
right_child=1 3 -4 -5 5 6 -8 8 10 -11 11 -13 -14 -15
leaf_value=-0.014720301439064777 -0.015394681669251618 0.0032010243315533597 0.015005759124704992 0.024544509999927133 0.028267690400138858 0.029562126773070505 0.0086482123223991514 -0.018777926940464328 0.0049220064091529663 -0.037960365712341189 -0.0058111056725560755 0.0037651960883010038 -0.029833718059298069 -0.015001783517828556
leaf_weight=41.909757483750582 10.819566877791656 11.537598561961206 3.9277264242991796 15.384329129010437 7.3072951405774793 6.2529628556221715 35.874061562586576 7.9388805173803112 9.1500074309296888 2.4769692074041805 13.014359469525521 6.5175338399130842 4.848735225852578 4.7240236951038233
leaf_count=985 218 193 51 92 73 37 429 120 93 81 244 38 78 45
internal_value=-0.00040179 0.009786 -0.0072965 0.0128933 0.0101645 0.0141947 0.0117531 -0.011773 -0.00722913 -0.0160178 -0.0044941 -0.0080288 -0.0123331 -0.00208573
internal_weight=181.684 95.8276 14.7473 81.0803 65.6959 49.4343 42.127 85.8562 41.4695 44.3867 33.5306 24.3806 17.8631 16.2616
internal_count=2777 1138 269 869 777 539 466 1639 573 1066 453 360 322 238
is_linear=0
shrinkage=0.0241822


Tree=5
num_leaves=15
num_cat=0
split_feature=0 2 4 2 4 4 2 2 0 0 2 2 2 4
split_gain=32.4128 5.23426 3.95464 3.98618 2.92401 2.65475 5.91611 3.21804 3.75728 3.16651 3.0628 2.25013 3.95637 9.29761
threshold=32.500000000000007 7451.3889160156259 -10.74960136413574 1720.2476196289065 -1.6636366248130796 4.972527503967286 944.04165649414074 638.66665649414074 55.500000000000007 85.500000000000014 814.48678588867199 1509.6236572265627 2144.779418945313 16.008241653442386
decision_type=2 2 2 2 2 2 2 2 2 2 2 2 2 2
left_child=1 2 3 -1 -2 6 -6 9 10 -7 -9 -4 13 -13
right_child=4 -3 11 -5 5 7 -8 8 -10 -11 -12 12 -14 -15
leaf_value=-0.029374875391247994 -0.017418536221722569 0.021462345860921109 0.016891380054789729 0.0028149348800724054 -0.0068734523955605769 0.018923733036110474 0.026984184361814736 0.012512885940157545 -0.02704200818651346 -0.0091824550605782793 -0.01376075402613597 -0.023110441321827095 0.011327650111020698 0.015415469684015557
leaf_weight=3.1613918154034746 27.11918208305724 18.048694103956223 16.66104961023666 7.7963623194955289 16.764348237309608 3.4034732650034112 3.6803809569682917 3.1953638433478835 10.838465575361623 7.5295282667502761 13.783232095418496 7.3326012529432756 31.73966107936576 7.3194325426593423
leaf_count=47 561 126 193 186 246 54 54 50 245 134 278 125 399 79
internal_value=-0.000196098 0.0097853 0.00693734 -0.00647043 -0.0108421 -0.00782885 -0.000777379 -0.0115487 -0.0159176 -0.000430903 -0.00881479 0.00926778 0.00652936 -0.00386343
internal_weight=178.373 92.0592 74.0105 10.9578 86.314 59.1948 20.4447 38.7501 27.8171 10.933 16.9786 63.0527 46.3917 14.652
internal_count=2777 1155 1029 233 1622 1061 300 761 573 188 328 796 603 204
is_linear=0
shrinkage=0.0241822


Tree=6
num_leaves=15
num_cat=0
split_feature=0 1 4 1 4 3 3 1 4 3 0 4 3 4
split_gain=30.5349 7.80141 4.63549 3.43574 2.865 2.52763 3.3853 2.74392 2.41929 2.07689 1.92814 3.1808 2.50672 2.10393
threshold=32.500000000000007 7437.9042968750009 -14.801785945892332 2145.909057617188 -4.9956140518188468 0.86190477013587963 0.59317129850387584 3663.207153320313 14.878571033477785 0.680425524711609 139.50000000000003 1.0000000180025095e-35 0.59317129850387584 25.742893218994144
decision_type=2 2 2 2 2 2 2 2 2 2 2 2 2 2
left_child=1 2 3 -1 -2 6 8 -8 -4 -5 11 -6 -13 -14
right_child=4 -3 5 9 10 -7 7 -9 -10 -11 -12 12 13 -15
leaf_value=-0.030782300800327976 -0.018653207230189768 0.023123627198659881 -0.015646875745281359 0.018382986361170028 0.0047207245843970246 -0.0018089651531724964 0.015222843837595404 -0.0025607121059796683 0.010368074470732347 -0.010928642217163338 -0.02189517534912799 -0.015674819685321955 -0.0077863089998774192 0.010950984400962802
leaf_weight=3.170357062481342 21.222449834924191 18.798725473927334 4.5928732163738442 2.2999741001985967 10.921098692808298 12.566855695098637 38.856799390166998 5.8334612846374503 3.8356737815774977 3.667395715136081 5.5741658543702206 21.895010666805319 18.282096551964063 4.334498500218614
leaf_count=64 477 134 124 42 150 86 461 101 55 89 77 622 271 44
internal_value=-0.000247027 0.00919662 0.00569727 -0.0104394 -0.0109993 0.00794242 0.0102498 0.0129011 -0.00380553 0.0003655 -0.00833641 -0.00697255 -0.00984201 -0.00419432
internal_weight=175.851 93.6221 74.8234 9.13773 82.2293 65.6857 53.1188 44.6903 8.42855 5.96737 61.0069 55.4327 44.5116 22.6166
internal_count=2797 1156 1022 195 1641 827 741 562 179 131 1164 1087 937 315
is_linear=0
shrinkage=0.0241822


Tree=7
num_leaves=15
num_cat=0
split_feature=0 0 4 4 4 0 3 4 0 4 5 4 0 3
split_gain=28.952 5.54219 3.41008 3.63561 2.869 1.9085 2.79572 1.70481 3.64352 1.85268 2.29167 1.75277 1.88583 1.69746
threshold=32.500000000000007 4.5000000000000009 -14.801785945892332 -22.967782020568844 -4.9956140518188468 139.50000000000003 0.89444443583488475 4.972527503967286 59.500000000000007 14.878571033477785 1.0000000180025095e-35 16.736231803894047 71.500000000000014 0.94665718078613292
decision_type=2 2 2 2 2 2 2 2 2 2 2 2 2 2
left_child=1 13 3 -3 -2 6 7 8 -6 -9 11 -11 -13 -1
right_child=4 2 -4 -5 5 -7 -8 9 -10 10 -12 12 -14 -15
leaf_value=0.024627277619920108 -0.01858599131789376 0.0019657670094393094 0.0079732043648243784 -0.032695939048929916 0.0092400303182401926 -0.022924469495227109 0.0091643909232905756 -0.018223887319376159 -0.012421897313490735 0.0042483245470574405 0.0065210252479248974 -0.028407880663987081 -0.0047544795631619388 0.0094862715652145827
leaf_weight=14.782121775904672 20.059269412769936 5.9070675396360457 62.144061543513089 2.5256875951308739 8.1759055114816892 4.6332125472836188 5.7690653521567574 14.916270311106929 10.210727182449771 2.643180379644039 5.359187494730576 4.6740955840796214 3.4125860375352204 6.1313093781936905
leaf_count=138 477 146 782 49 159 77 25 373 192 58 80 138 62 41
internal_value=-3.12827e-05 0.00925528 0.00601494 -0.00841365 -0.0106714 -0.00801589 -0.00676323 -0.00862404 -0.00278846 -0.0120839 -0.00639014 -0.0128407 -0.0184289 0.0201894
internal_weight=171.344 91.4902 70.5768 8.43276 79.8535 59.7942 55.161 49.392 18.3866 31.0053 16.089 10.7299 8.08668 20.9134
internal_count=2797 1156 977 195 1641 1164 1087 1062 351 711 338 258 200 179
is_linear=0
shrinkage=0.0241822


Tree=8
num_leaves=15
num_cat=0
split_feature=2 2 3 3 2 2 2 2 2 3 3 3 2 2
split_gain=27.291 6.58656 3.1192 2.49291 2.6426 2.35684 2.10915 5.15497 2.05898 1.66263 2.34541 2.15166 1.88372 2.99903
threshold=1335.7806396484377 7451.3889160156259 0.59317129850387584 0.76833632588386547 2195.5422363281255 1521.2678833007815 2659.4895019531255 3141.662475585938 3632.604125976563 0.58957219123840343 0.65571120381355297 0.63373982906341564 461.41667175292974 718.69616699218761
decision_type=2 2 2 2 2 2 2 2 2 2 2 2 2 2
left_child=9 2 -2 5 -5 -4 -7 -8 -6 -1 11 -11 -12 -14
right_child=1 -3 3 4 8 6 7 -9 -10 10 12 -13 13 -15
leaf_value=-0.014039468125587571 -0.005932044971666257 0.02216832011299924 0.021188236900047463 -0.011159952039722426 0.013048697353205525 -6.9907468964313394e-05 0.03572639080310093 0.0042837885130137783 -0.0037736670216435 -0.0053012345389873167 -0.027157075141878068 0.016555571630207169 0.00093865919073159978 -0.016514315825118822
leaf_weight=38.749604314099997 11.175641571753657 17.981107943924144 11.238227747380732 6.5353186442516771 11.395909152459355 11.01781861134805 4.4156351385172448 9.8587911545764637 6.787023853044956 7.8548442251048964 3.6106219175271717 3.962008222239092 10.788572030141951 12.341005703550762
leaf_count=1086 271 129 71 47 112 186 32 202 92 147 41 56 124 201
internal_value=4.75205e-05 0.00906823 0.00581549 0.00795933 0.00202741 0.0119726 0.0078768 0.0140119 0.00676841 -0.0105014 -0.00694506 0.00202538 -0.01091 -0.00837269
internal_weight=167.712 90.4055 72.4244 61.2487 24.7183 36.5305 25.2922 14.2744 18.1829 77.3067 38.5571 11.8169 26.7402 23.1296
internal_count=2797 1142 1013 742 251 491 420 234 204 1655 569 203 366 325
is_linear=0
shrinkage=0.0241822


Tree=9
num_leaves=15
num_cat=0
split_feature=1 3 3 3 1 4 4 4 2 2 4 3 4 2
split_gain=22.1279 4.54229 5.13176 3.82597 3.31375 4.83848 3.03189 2.77092 2.18267 3.93156 3.15775 1.95383 2.43537 1.89621
threshold=2145.909057617188 0.58722111582756054 0.65571120381355297 0.63373982906341564 8416.2919921875018 58.028171539306648 4.4276316165924081 -12.540209770202635 1123.5000000000002 1470.6124267578127 4.972527503967286 0.52506268024444591 20.895130157470707 1366.969665527344
decision_type=2 2 2 2 2 2 2 2 2 2 2 2 2 2
left_child=1 11 3 6 5 -2 -3 -4 10 -10 -9 12 -1 -8
right_child=4 2 7 -5 -6 -7 13 8 9 -11 -12 -13 -14 -15
leaf_value=-0.012033298603382713 0.011697574752206201 -0.014686554815662086 -0.026120431122919861 0.023581910335364581 0.023783143734127123 -0.017612082071192723 0.00059411101117446948 0.00051357555749121763 0.013576549271396492 -0.010383847339487353 -0.01892773503080316 -0.021765365024396598 0.0077369954565750269 0.023952655428120258
leaf_weight=33.367685122881085 36.833246395923197 4.9072658719960627 4.1528765778057268 6.0874094967730334 11.512683322653173 3.61646973225288 5.6308881393633765 8.5469261223915982 7.8734256739262518 8.1494567159097624 11.398469263920559 10.309770519263109 4.0888364121783516 3.1815772140398622
leaf_count=904 549 80 61 81 70 47 122 81 91 78 185 290 104 22
internal_value=-0.000625076 -0.00687866 -0.00244436 0.00762648 0.0123354 0.00907654 0.000545424 -0.00741669 -0.0052565 0.00138869 -0.0105958 -0.0124415 -0.00987456 0.00902987
internal_weight=159.657 107.695 59.9283 19.8071 51.9624 40.4497 13.7197 40.1212 35.9683 16.0229 19.9454 47.7663 37.4565 8.81247
internal_count=2765 2099 801 305 666 596 224 496 435 169 266 1298 1008 144
is_linear=0
shrinkage=0.0241822


end of trees

feature_importances:
avg_pts_1y_surface=40
trend_slope=36
surf_winrate_y1=26
rank=18
avg_pts_1y=13
is_clay=6
is_outdoor=1

parameters:
[boosting: gbdt]
[objective: lambdarank]
[metric: ndcg]
[tree_learner: serial]
[device_type: cpu]
[data_sample_strategy: bagging]
[data: ]
[valid: ]
[num_iterations: 500]
[learning_rate: 0.0241822]
[num_leaves: 15]
[num_threads: 0]
[seed: 0]
[deterministic: 0]
[force_col_wise: 0]
[force_row_wise: 0]
[histogram_pool_size: -1]
[max_depth: -1]
[min_data_in_leaf: 50]
[min_sum_hessian_in_leaf: 0.001]
[bagging_fraction: 0.871559]
[pos_bagging_fraction: 1]
[neg_bagging_fraction: 1]
[bagging_freq: 3]
[bagging_seed: 3]
[bagging_by_query: 0]
[feature_fraction: 0.589134]
[feature_fraction_bynode: 1]
[feature_fraction_seed: 2]
[extra_trees: 0]
[extra_seed: 6]
[early_stopping_round: 0]
[early_stopping_min_delta: 0]
[first_metric_only: 0]
[max_delta_step: 0]
[lambda_l1: 0.000854098]
[lambda_l2: 0.000139851]
[linear_lambda: 0]
[min_gain_to_split: 0]
[drop_rate: 0.1]
[max_drop: 50]
[skip_drop: 0.5]
[xgboost_dart_mode: 0]
[uniform_drop: 0]
[drop_seed: 4]
[top_rate: 0.2]
[other_rate: 0.1]
[min_data_per_group: 100]
[max_cat_threshold: 32]
[cat_l2: 10]
[cat_smooth: 10]
[max_cat_to_onehot: 4]
[top_k: 20]
[monotone_constraints: ]
[monotone_constraints_method: basic]
[monotone_penalty: 0]
[feature_contri: ]
[forcedsplits_filename: ]
[refit_decay_rate: 0.9]
[cegb_tradeoff: 1]
[cegb_penalty_split: 0]
[cegb_penalty_feature_lazy: ]
[cegb_penalty_feature_coupled: ]
[path_smooth: 0]
[interaction_constraints: ]
[verbosity: -1]
[saved_feature_importance_type: 0]
[use_quantized_grad: 0]
[num_grad_quant_bins: 4]
[quant_train_renew_leaf: 0]
[stochastic_rounding: 1]
[linear_tree: 0]
[max_bin: 255]
[max_bin_by_feature: ]
[min_data_in_bin: 3]
[bin_construct_sample_cnt: 200000]
[data_random_seed: 1]
[is_enable_sparse: 1]
[enable_bundle: 1]
[use_missing: 1]
[zero_as_missing: 0]
[feature_pre_filter: 0]
[pre_partition: 0]
[two_round: 0]
[header: 0]
[label_column: ]
[weight_column: ]
[group_column: ]
[ignore_column: ]
[categorical_feature: ]
[forcedbins_filename: ]
[precise_float_parser: 0]
[parser_config_file: ]
[objective_seed: 5]
[num_class: 1]
[is_unbalance: 0]
[scale_pos_weight: 1]
[sigmoid: 1]
[boost_from_average: 1]
[reg_sqrt: 0]
[alpha: 0.9]
[fair_c: 1]
[poisson_max_delta_step: 0.7]
[tweedie_variance_power: 1.5]
[lambdarank_truncation_level: 30]
[lambdarank_norm: 1]
[label_gain: 0,1]
[lambdarank_position_bias_regularization: 0]
[eval_at: 1]
[multi_error_top_k: 1]
[auc_mu_weights: ]
[num_machines: 1]
[local_listen_port: 12400]
[time_out: 120]
[machine_list_filename: ]
[machines: ]
[gpu_platform_id: -1]
[gpu_device_id: -1]
[gpu_use_dp: 0]
[num_gpu: 1]

end of parameters

pandas_categorical:null
