tree
version=v4
num_class=1
num_tree_per_iteration=1
label_index=0
max_feature_idx=7
objective=binary sigmoid:1
feature_names=rank avg_pts_1y avg_pts_1y_surface surf_winrate_y1 trend_slope is_clay is_grass is_outdoor
feature_infos=[1:1187] [7:11055] [7:11055] [0:1] [-570:201.09091186523438] [0:1] [0:1] [0:1]
tree_sizes=3404 3603 3598 3640 3585

Tree=0
num_leaves=34
num_cat=0
split_feature=0 0 1 1 0 4 4 4 4 4 0 4 4 1 1 2 2 2 5 2 4 4 2 1 4 4 0 1 4 4 1 4 2
split_gain=90.2876 9.79721 9.36584 7.47835 6.12039 7.99232 4.22337 3.85213 3.22327 5.48929 3.04577 2.81188 3.13488 2.70729 2.47209 2.20997 4.49875 1.8185 1.77108 2.08409 1.73546 4.43919 1.4906 1.89403 1.31317 1.28656 1.27786 1.18187 1.68484 1.48605 2.83661 1.16218 2.15574
threshold=24.500000000000004 68.500000000000014 6915.6516113281259 887.83334350585949 32.500000000000007 -15.558441638946531 1.5138278603553774 14.297268867492678 8.5746436119079608 19.09370040893555 18.500000000000004 -1.9583333134651182 1.7175419926643374 808.89999389648449 858.10253906250011 1019.9391479492189 1301.6911621093752 788.45834350585949 1.0000000180025095e-35 1142.8333129882815 4.275724172592164 7.1597676277160653 811.10086059570324 729.90899658203136 -11.849992275238035 -5.9560439586639395 29.500000000000004 2323.746704101563 4.972527503967286 -17.897477149963375 3230.877807617188 2.4109890460968022 811.10086059570324
decision_type=2 2 2 2 2 2 2 2 2 2 2 2 2 2 2 2 2 2 2 2 2 2 2 2 2 2 2 2 2 2 2 2 2
left_child=2 3 7 8 5 -5 15 27 31 17 -9 13 -13 -3 -15 24 -17 -10 19 -7 -14 -22 23 -11 -6 -26 -21 -1 29 30 -29 -2 -33
right_child=1 11 -4 4 6 18 -8 10 9 22 -12 12 20 14 -16 16 -18 -19 -20 26 21 -23 -24 -25 25 -27 -28 28 -30 -31 -32 32 -34
leaf_value=0.0034484786931156535 0.00070197756939340331 -0.065080185463043422 0.078236601902227684 -0.05740661456282365 -0.027044655006015206 0.034908308698880758 -0.050429498442994866 0.05086420471510901 0.066404269382253536 0 0.0070998314547336509 0 -0.071432107189741703 0.011127869369433111 -0.040708651898791137 -0.055496897651974138 0 0.015432431694594091 0.036916065599102495 0.00062267405900114233 0.016566906805628702 -0.035752839779814104 0.0092262494923268396 -0.051095223604159225 0.032734061342238246 -0.00060007685038392198 -0.032734061342238267 0.042363660570380657 -0.0010629993073953421 0.048181936867092344 -0.0097561418086426314 0 -0.050648013339894132
leaf_weight=32.25 10.000000000000002 40.25 29 8.4999999999999982 5.2500000000000027 5.7500000000000027 45.25 57 8.7500000000000018 5.2500000000000018 14.749999999999998 14.249999999999998 7.4999999999999991 5.4999999999999991 8.2499999999999982 14.750000000000002 14.499999999999998 15.249999999999998 11.249999999999998 11.500000000000002 7.4999999999999991 46.25 6.9999999999999991 5.5 6.2500000000000044 11.999999999999996 6.2499999999999991 7.0000000000000027 5.9999999999999991 15.749999999999998 10.249999999999998 8.9999999999999982 6.9999999999999991
leaf_count=129 40 161 116 34 21 23 181 228 35 21 59 57 30 22 33 59 58 61 45 46 30 185 28 22 25 48 25 28 24 63 41 36 28
internal_value=-0.00271317 -0.0245998 0.0398004 -0.014184 -0.0236991 0 -0.0336074 0.0306955 0.00482536 0.0177312 0.0431331 -0.0404992 -0.0283366 -0.0549036 -0.0169232 -0.0168215 -0.0295618 0.0398139 0.0151569 0.000327074 -0.0353202 -0.0269951 -0.00973291 -0.0267804 0 0.00948992 -0.00973291 0.0165431 0.0251684 0.0316015 0.00998866 -0.0133868 -0.0250073
internal_weight=510.5 338.5 172 209 141.25 43.25 98 143 67.75 41.75 71.75 129.5 75.5 54 13.75 52.75 29.25 24 34.75 23.5 61.25 53.75 17.75 10.75 23.5 18.25 17.75 71.25 39 33 17.25 26 16
internal_count=2042 1354 688 836 565 173 392 572 271 167 287 518 302 216 55 211 117 96 139 94 245 215 71 43 94 73 71 285 156 132 69 104 64
is_linear=0
shrinkage=0.0727174


Tree=1
num_leaves=34
num_cat=0
split_feature=2 4 2 2 5 2 4 4 4 2 2 4 2 4 4 4 2 2 2 2 4 4 4 4 4 2 2 4 4 4 2 4 4
split_gain=77.6886 9.55444 6.07925 5.91148 7.42776 3.95707 3.87934 7.43207 4.32972 3.73547 3.65061 2.80941 2.77327 2.74664 2.67071 2.51158 3.11031 2.37095 2.30277 2.11452 1.99705 1.89417 1.84447 2.80368 1.76439 1.67658 1.59174 1.03154 2.11364 1.11909 0.928207 0.896751 0.807766
threshold=2014.0198364257815 -0.36968523263931269 1343.3333129882815 799.68829345703136 1.0000000180025095e-35 1066.1250000000002 1.5138278603553774 4.275724172592164 5.2358288764953622 7138.8889160156259 1492.666687011719 8.9240031242370623 501.56861877441412 11.470238208770754 4.7537879943847665 19.09370040893555 1132.4857177734377 1398.3974609375002 509.58332824707037 536.54998779296886 23.12976169586182 -11.495454311370848 6.6002748012542733 19.57275485992432 -5.2458791732788077 927.24166870117199 1036.5259399414065 16.008241653442386 16.736231803894047 14.073477745056154 819.13485717773449 -17.016483306884762 -3.9401869773864742
decision_type=2 2 2 2 2 2 2 2 2 2 2 2 2 2 2 2 2 2 2 2 2 2 2 2 2 2 2 2 2 2 2 2 2
left_child=1 3 6 18 5 -5 19 -8 -9 13 -4 -10 20 14 32 16 27 21 -1 -3 -13 31 -12 -24 -23 -17 -27 29 -29 30 -14 -6 -2
right_child=9 2 10 4 17 -7 7 8 11 -11 22 12 15 -15 -16 25 -18 -19 -20 -21 -22 24 23 -25 -26 26 -28 28 -30 -31 -32 -33 -34
leaf_value=-0.0057275138782502148 0.01713090258565695 -0.021119707928114632 0.037982554629495194 -0.010069175067375433 0 -0.056010374303747709 -0.058110641616297719 0.031797446406025436 -0.037671749316758506 0.072807090063812779 0.025624288644224308 -0.056589649082743769 0.022394516505821496 0.049618893925965836 -0.015627332904836221 -0.02996114841962659 -0.034061106124028816 0.031746847490683995 -0.064496771051388957 0.022255711339456807 0 0.037023631957281568 -0.037462667796543732 0.006109849446837721 -0.010611324050725113 0.025733636599348783 -0.015508534253876318 0.054665936365680033 0 -0.013677286826050544 0 -0.046045045212006079 0.047513581124129671
leaf_weight=6.9931223392486563 33.989417210221291 5.5000000000000027 16.246215894818306 21.743443682789803 5.2485993653535843 29.240085110068321 22.734081536531448 7.9972767680883399 27.989100262522697 26.709107801318169 6.9999827146530178 9.4969649314880353 14.992469400167467 51.96889753639698 5.7499922513961783 25.99217963218689 7.7469058632850638 9.9976599216461164 38.215031936764717 18.49877755343914 5.7481629848480216 5.2481826990842837 11.248353078961374 13.745926603674887 5.4992215186357498 5.7481436878442791 12.496299698948858 5.74720375239849 10.246591567993162 11.743838399648665 11.99572993814945 5.2474764585495013 11.494772076606749
leaf_count=28 136 22 65 87 21 117 91 32 112 107 28 38 60 208 23 104 31 40 153 74 23 21 45 55 22 23 50 23 41 47 48 21 46
internal_value=-0.00250312 -0.0192127 -0.0105374 -0.0355498 -0.0218431 -0.0386383 -0.0161251 -0.019877 -0.0133846 0.0455274 0.0116122 -0.0165635 -0.0107266 0.0367401 0.021235 -0.00556134 0.00298731 0.00421835 -0.0573382 0.00904371 -0.0387386 -0.00738864 -0.00116435 -0.0122775 0.00945747 -0.0186837 0 0.0102791 0.0252278 0.00167906 0.0110341 -0.0287606 0.0276712
internal_weight=510.259 380.347 252.914 127.433 82.2247 50.9835 204.674 180.675 157.941 129.912 48.2405 149.944 121.954 103.203 51.2342 106.709 62.4727 31.2411 45.2082 23.9988 15.2451 21.2435 31.9943 24.9943 10.7474 44.2366 18.2444 54.7258 15.9938 38.732 26.9882 10.4961 45.4842
internal_count=2042 1522 1012 510 329 204 819 723 632 520 193 600 488 413 205 427 250 125 181 96 61 85 128 100 43 177 73 219 64 155 108 42 182
is_linear=0
shrinkage=0.0727174


Tree=2
num_leaves=34
num_cat=0
split_feature=0 0 0 2 3 2 5 3 2 3 0 0 2 0 3 2 3 0 0 2 2 0 2 3 2 3 3 3 3 3 3 3 2
split_gain=68.9977 7.76375 6.62987 4.74011 3.928 3.78188 5.29084 3.19995 3.16731 2.52686 4.32096 2.43039 2.19051 5.4411 2.52216 2.17635 2.63679 2.11484 2.05283 2.69873 1.72275 2.7192 1.92819 1.79572 1.62989 1.54991 1.52296 1.29979 1.27926 1.23679 3.38576 2.25261 3.39641
threshold=24.500000000000004 68.500000000000014 14.500000000000002 783.92105102539074 0.59317129850387584 858.82290649414074 1.0000000180025095e-35 0.74709302186965953 907.58334350585949 0.61651584506034862 17.500000000000004 60.500000000000007 619.42727661132824 88.500000000000014 0.58722111582756054 7138.8889160156259 0.90454545617103588 115.50000000000001 37.500000000000007 966.50000000000011 536.54998779296886 255.00000000000003 576.82855224609386 0.38675214350223547 1142.8333129882815 0.63060426712036144 0.64932429790496837 0.69883719086647045 0.56330129504203807 0.38278388977050787 0.34166666865348821 0.4463601559400559 984.77243041992199
decision_type=2 2 2 2 2 2 2 2 2 2 2 2 2 2 2 2 2 2 2 2 2 2 2 2 2 2 2 2 2 2 2 2 2
left_child=2 3 15 -2 5 11 29 9 26 28 -11 -5 13 -3 17 16 -1 -14 -8 -20 21 23 -22 -15 27 -26 -6 -10 -4 30 -7 32 -31
right_child=1 12 7 4 8 6 18 -9 24 10 -12 -13 14 20 -16 -17 -18 -19 19 -21 22 -23 -24 -25 25 -27 -28 -29 -30 31 -32 -33 -34
leaf_value=0.040586884432989988 0.015025106076452523 0.025911452465754908 0.013435910537028552 0.032177749196325739 0 -0.041253913406133998 0.020260904034202963 -0.015584412092639173 0.032291370496929768 0 0.055527729446635921 -0.016445058250748872 -0.056462736603663209 -0.004648856970447192 -0.0075786635439741151 0.068118043204190945 0 -6.1654123836990917e-05 0.0050279605522294268 -0.047206901378805302 0.019478120503185446 0 -0.025823993525921584 -0.060195957199239709 -0.031024239605548318 0.0053169802158622471 -0.041064091324661052 0 -0.021031719348148487 -0.0037424200298068638 0.02314246810959172 -0.030338194628841499 -0.088494671210955819
leaf_weight=75.11521951854229 25.723865866661072 7.9930526167154303 16.743893787264827 7.9948778152465847 6.4942533224821117 7.2377433329820615 11.243087723851206 11.744459837675093 15.739261940121652 9.9929946064949053 18.489535674452782 9.2459640949964506 52.896089270710945 6.9858852028846767 12.481091275811194 26.598008319735527 6.984278365969657 6.2321955114603034 7.7413051724433881 6.9904436320066452 5.7377865612506858 5.9933912903070441 9.9700315147638303 20.974711418151855 6.2425883710384396 20.477567136287689 11.243812561035154 5.4948013573884955 5.9964359551668158 5.2435407638549831 5.4946818053722382 43.711708784103394 12.482390895485876
leaf_count=301 103 32 67 32 26 29 45 47 63 40 74 37 212 28 50 107 28 25 31 28 23 24 40 84 25 82 45 22 24 21 22 175 50
internal_value=-0.00235061 -0.0215066 0.0348363 -0.0121909 -0.0164713 -0.0243818 -0.0298128 0.0139844 -0.00111081 0.0222753 0.0361944 0.00361357 -0.0356931 -0.0216776 -0.0453007 0.0459127 0.0366592 -0.0517515 0 -0.0182687 -0.0312208 -0.0405521 -0.00529215 -0.0495924 0.0076716 -0.00231745 -0.0266922 0.0222502 0.000852496 -0.0395114 -0.00959134 -0.0442485 -0.0693547
internal_weight=509.731 338.066 171.665 208.802 183.078 117.386 100.145 62.9673 65.6923 51.2229 28.4825 17.2408 129.264 57.6549 71.6094 108.698 82.0995 59.1283 25.9748 14.7317 49.6618 33.954 15.7078 27.9606 47.9542 26.7202 17.7381 21.2341 22.7403 74.1701 12.7324 61.4376 17.7259
internal_count=2042 1354 688 836 733 470 401 252 263 205 114 69 518 231 287 436 329 237 104 59 199 136 63 112 192 107 71 85 91 297 51 246 71
is_linear=0
shrinkage=0.0727174


Tree=3
num_leaves=34
num_cat=0
split_feature=2 3 1 1 3 2 3 2 3 3 3 1 1 2 2 1 1 3 3 2 1 3 2 2 2 3 2 3 1 2 1 2 2
split_gain=59.4827 8.09872 6.632 3.40296 2.59193 3.3492 4.11981 4.23977 3.77365 2.28408 6.46607 1.78797 5.9178 3.05602 2.42273 2.0196 2.86021 2.53376 1.77582 1.75033 3.32787 2.92924 2.88672 1.50323 1.7429 1.46345 1.26586 1.23796 1.08182 2.18266 1.00115 0.985426 0.875994
threshold=2014.0198364257815 0.59317129850387584 464.17613220214849 6915.6516113281259 0.87083333730697643 1301.6911621093752 0.61414393782615673 555.97500610351574 0.63060426712036144 0.66287881135940563 0.63373982906341564 743.56250000000011 855.11111450195324 616.42855834960949 762.75000000000011 805.93588256835949 758.30303955078136 0.4463601559400559 0.52277433872222911 1335.7806396484377 1755.901550292969 0.38278388977050787 1066.1250000000002 542.97915649414074 487.33332824707037 0.42640693485736852 1509.6236572265627 0.54226192831993114 3539.6740722656255 3698.198120117188 599.23611450195324 770.95651245117199 1720.2476196289065
decision_type=2 2 2 2 2 2 2 2 2 2 2 2 2 2 2 2 2 2 2 2 2 2 2 2 2 2 2 2 2 2 2 2 2
left_child=1 11 -3 28 5 6 -4 -8 -7 10 -9 13 15 23 -15 16 -13 -17 31 22 21 -21 27 24 -1 -23 -10 -14 -2 -30 -25 -18 -28
right_child=3 2 4 -5 -6 8 7 9 26 -11 -12 12 19 14 -16 17 18 -19 -20 20 -22 25 -24 30 -26 -27 32 -29 29 -31 -32 -33 -34
leaf_value=0 0.037420850551466642 -0.053784871116707558 0.030950802367533368 0.064411919400382628 -0.029171909233652982 -0.015494761924941251 0.041026064224570689 -0.036657836621546383 0.04786513529100965 -0.026234881839312212 0.040169000919807608 0.024239403568207137 -0.028062454165706924 -0.055545432151492317 0 -0.0054449273983952834 -0.026039396073483476 0.038910372190142935 -0.054149908821566263 0.038802048659373867 -0.056016516167600977 -0.039379617199510442 -0.058845151799980185 0.023234703131437259 -0.046541067778305058 -0.00094458682979574793 -0.0026471221553504274 0 -0.0096583446181325115 0.026871838873074892 -0.012827457173734848 0.0069530962524347673 0.025636682287399015
leaf_weight=11.466466128826143 68.044304773211479 10.467907801270483 13.47687755525112 28.671109199523926 10.48869653046131 7.4899264723062506 5.2413302212953559 9.2389324307441729 17.473613083362583 42.192643642425537 10.24384845793247 5.9795900583267239 42.918528690934181 36.576342970132828 5.2377884685993186 8.4891595244407672 5.4819080829620388 11.991052538156508 5.9884900450706473 5.2433298528194419 6.2347255647182456 6.4691203087568274 22.174044847488403 5.9879593849182111 9.4712972939014417 25.719462633132935 6.492315933108328 10.737163886427878 8.7288880050182325 23.918309941887856 5.2342180907726288 8.2287677526473981 7.2399816811084747
leaf_count=46 273 42 54 116 42 30 21 37 70 169 41 24 172 147 21 34 22 48 24 21 25 26 89 24 38 103 26 43 35 96 21 33 29
internal_value=-0.00224792 -0.0168835 -0.00242349 0.0398622 0.00190679 0.00556604 -0.00225755 -0.0105117 0.0227978 -0.0169339 0.000686622 -0.0249872 -0.0194843 -0.0357132 -0.0492006 0.00132319 -0.0104717 0.0186628 -0.0251432 -0.0279548 -0.0130176 -0.00199695 -0.0352307 -0.0146193 -0.0258253 -0.0122233 0.0342824 -0.0227349 0.0312467 0.0152382 0.00200293 -0.00355168 0.0093386
internal_weight=509.038 379.675 140.046 129.363 129.578 119.089 80.3936 66.9168 38.6958 61.6754 19.4828 239.629 165.655 73.9741 41.8141 46.159 25.6788 20.4802 19.6992 119.496 43.6666 37.4319 75.8297 32.1599 20.9378 32.1886 31.2059 53.6557 100.692 32.6472 11.2222 13.7107 13.7323
internal_count=2042 1522 561 520 519 477 322 268 155 247 78 961 664 297 168 185 103 82 79 479 175 150 304 129 84 129 125 215 404 131 45 55 55
is_linear=0
shrinkage=0.0727174


Tree=4
num_leaves=34
num_cat=0
split_feature=2 4 3 3 1 3 1 1 3 1 1 4 4 1 2 3 2 3 3 1 4 4 4 1 2 4 3 4 4 4 2 1 4
split_gain=51.9185 7.20748 6.85061 5.47324 4.99341 3.93479 3.66113 3.30793 3.22313 3.0744 2.99095 2.60839 2.47134 3.48416 3.49249 3.43118 2.96675 2.42482 2.56077 2.53347 2.10976 4.57341 2.10745 1.9813 3.09838 1.84462 2.14547 1.53665 2.82923 1.24003 1.19613 3.6788 1.18458
threshold=2014.0198364257815 -0.36968523263931269 0.4463601559400559 0.63060426712036144 808.89999389648449 0.73431372642517101 1733.4172363281252 665.75729370117199 0.38278388977050787 656.45623779296886 6915.6516113281259 11.470238208770754 30.25657939910889 887.83334350585949 517.07144165039074 0.58957219123840343 619.42727661132824 0.57793521881103527 0.7124060094356538 1079.2069091796877 7.709649085998536 16.736231803894047 4.7537879943847665 1402.8563232421877 718.69616699218761 1.5138278603553774 0.45643940567970281 3.9940476417541508 10.823376655578615 -3.9401869773864742 1357.305603027344 1004.8960571289064 -11.849992275238035
decision_type=2 2 2 2 2 2 2 2 2 2 2 2 2 2 2 2 2 2 2 2 2 2 2 2 2 2 2 2 2 2 2 2 2
left_child=1 2 -1 8 -4 7 17 -5 9 -3 11 22 13 14 -10 25 -16 30 19 -19 -18 -22 29 24 -7 -15 -27 -9 -29 32 31 -6 -2
right_child=10 3 4 5 6 23 -8 27 12 -11 -12 -13 -14 15 16 -17 20 18 -20 -21 21 -23 -24 -25 -26 26 -28 28 -30 -31 -32 -33 -34
leaf_value=-0.04826179640920774 0.017160481198399698 -0.025970503691719628 -0.043799604934008973 -0.013025062886043593 0.035125992672828558 0 -0.04832998370547064 0.061913591533161463 -0.048025595933996079 0.020893658123462999 0.06046278508534763 0.041172553608727701 0.0068865759629108438 0 0.033655535311582045 0 -0.027298214408213301 0 0.019501981438237226 -0.049865855694925389 0.021525014726258614 -0.031229114320968327 -0.018200956115697078 0.010940308202101236 -0.050987371494421771 -0.015987002037390927 -0.062941340348816155 -0.020638072487499839 0.02613205314317912 0.041304588141359989 0.050267614975131381 -0.028999500458094307 -0.011669574267890651
leaf_weight=59.088554635643959 25.696597531437874 8.7186174094676989 17.615386456251144 10.964948803186415 9.4886375367641467 9.9834651947021538 5.4840438812971106 5.7422741204500189 9.9445515125989896 20.44418977200985 28.447122022509575 51.393877908587456 11.481679454445837 5.2464883327484122 7.4887616336345664 9.988241106271742 20.936995625495911 7.2404133677482623 8.2354443967342359 7.9869734048843384 20.953785479068756 12.219938173890112 5.7460047006607047 7.2392951995134345 10.48474834859371 13.191361695528029 27.66808944940567 5.4893864393234244 34.177371740341187 11.440965086221693 5.9921281635761252 5.7277926206588736 6.230238243937495
leaf_count=238 103 35 71 44 38 40 22 23 40 82 116 207 46 21 30 40 84 29 33 32 84 49 23 29 42 53 111 22 137 46 24 23 25
internal_value=-0.0021647 -0.0158439 -0.0300739 -0.00827684 -0.0124612 0.00624627 0 0.0176223 -0.0159017 0.00411281 0.0372379 0.0290978 -0.0205535 -0.0235806 -0.0111701 -0.0374663 -0.00302304 0.00718448 -0.00675473 -0.0252994 -0.0101615 0 0.0141993 -0.0143806 -0.026392 -0.045557 -0.0505924 0.0266005 0.017497 0.0204675 0.0247389 0.00668678 0.00930359
internal_weight=508.178 379.224 126.859 252.364 67.7708 84.0815 50.1554 56.374 168.283 29.1628 128.955 100.508 139.12 127.638 71.544 56.0942 61.5995 44.6714 23.4628 15.2274 54.1107 33.1737 49.1138 27.7075 20.4682 46.1059 40.8595 45.409 39.6668 43.3678 21.2086 15.2164 31.9268
internal_count=2042 1522 510 1012 272 337 201 226 675 117 520 404 558 512 287 225 247 179 94 61 217 133 197 111 82 185 164 182 159 174 85 61 128
is_linear=0
shrinkage=0.0727174


end of trees

feature_importances:
avg_pts_1y_surface=48
trend_slope=43
surf_winrate_y1=32
avg_pts_1y=25
rank=14
is_clay=3

parameters:
[boosting: gbdt]
[objective: binary]
[metric: binary_logloss,ndcg]
[tree_learner: serial]
[device_type: cpu]
[data_sample_strategy: bagging]
[data: ]
[valid: ]
[num_iterations: 500]
[learning_rate: 0.0727174]
[num_leaves: 34]
[num_threads: 0]
[seed: 0]
[deterministic: 0]
[force_col_wise: 0]
[force_row_wise: 0]
[histogram_pool_size: -1]
[max_depth: -1]
[min_data_in_leaf: 21]
[min_sum_hessian_in_leaf: 0.001]
[bagging_fraction: 0.646322]
[pos_bagging_fraction: 1]
[neg_bagging_fraction: 1]
[bagging_freq: 9]
[bagging_seed: 3]
[bagging_by_query: 0]
[feature_fraction: 0.661596]
[feature_fraction_bynode: 1]
[feature_fraction_seed: 2]
[extra_trees: 0]
[extra_seed: 6]
[early_stopping_round: 0]
[early_stopping_min_delta: 0]
[first_metric_only: 0]
[max_delta_step: 0]
[lambda_l1: 0.886304]
[lambda_l2: 1.77768]
[linear_lambda: 0]
[min_gain_to_split: 0]
[drop_rate: 0.1]
[max_drop: 50]
[skip_drop: 0.5]
[xgboost_dart_mode: 0]
[uniform_drop: 0]
[drop_seed: 4]
[top_rate: 0.2]
[other_rate: 0.1]
[min_data_per_group: 100]
[max_cat_threshold: 32]
[cat_l2: 10]
[cat_smooth: 10]
[max_cat_to_onehot: 4]
[top_k: 20]
[monotone_constraints: ]
[monotone_constraints_method: basic]
[monotone_penalty: 0]
[feature_contri: ]
[forcedsplits_filename: ]
[refit_decay_rate: 0.9]
[cegb_tradeoff: 1]
[cegb_penalty_split: 0]
[cegb_penalty_feature_lazy: ]
[cegb_penalty_feature_coupled: ]
[path_smooth: 0]
[interaction_constraints: ]
[verbosity: -1]
[saved_feature_importance_type: 0]
[use_quantized_grad: 0]
[num_grad_quant_bins: 4]
[quant_train_renew_leaf: 0]
[stochastic_rounding: 1]
[linear_tree: 0]
[max_bin: 255]
[max_bin_by_feature: ]
[min_data_in_bin: 3]
[bin_construct_sample_cnt: 200000]
[data_random_seed: 1]
[is_enable_sparse: 1]
[enable_bundle: 1]
[use_missing: 1]
[zero_as_missing: 0]
[feature_pre_filter: 0]
[pre_partition: 0]
[two_round: 0]
[header: 0]
[label_column: ]
[weight_column: ]
[group_column: ]
[ignore_column: ]
[categorical_feature: ]
[forcedbins_filename: ]
[precise_float_parser: 0]
[parser_config_file: ]
[objective_seed: 5]
[num_class: 1]
[is_unbalance: 0]
[scale_pos_weight: 1]
[sigmoid: 1]
[boost_from_average: 1]
[reg_sqrt: 0]
[alpha: 0.9]
[fair_c: 1]
[poisson_max_delta_step: 0.7]
[tweedie_variance_power: 1.5]
[lambdarank_truncation_level: 30]
[lambdarank_norm: 1]
[label_gain: 0,1]
[lambdarank_position_bias_regularization: 0]
[eval_at: 1]
[multi_error_top_k: 1]
[auc_mu_weights: ]
[num_machines: 1]
[local_listen_port: 12400]
[time_out: 120]
[machine_list_filename: ]
[machines: ]
[gpu_platform_id: -1]
[gpu_device_id: -1]
[gpu_use_dp: 0]
[num_gpu: 1]

end of parameters

pandas_categorical:null
